Language model created by QuickLM on Sun Jun 11 06:43:06 EDT 2017
Copyright (c) 1996-2010 Carnegie Mellon University and Alexander I. Rudnicky

The model is in standard ARPA format, designed by Doug Paul while he was at MITRE.

The code that was used to produce this language model is available in Open Source.
Please visit http://www.speech.cs.cmu.edu/tools/ for more information

The (fixed) discount mass is 0.5. The backoffs are computed using the ratio method.
This model based on a corpus of 22 sentences and 23 words

\data\
ngram 1=23
ngram 2=39
ngram 3=41

\1-grams:
-0.9542 </s> -0.3010
-0.9542 <s> -0.2499
-1.9956 ALL -0.2785
-1.9956 BATHROOM -0.2785
-1.9956 BEDROOM -0.2785
-2.2967 BLUE -0.2499
-1.9956 DINING -0.2966
-2.2967 FADE -0.2499
-1.9956 FAN -0.2739
-1.3424 GARDEN -0.2808
-2.2967 GREEN -0.2499
-2.2967 INDIGO -0.2499
-1.9956 KITCHEN -0.2785
-1.2967 LIGHTS -0.2739
-1.5185 OFF -0.2499
-1.5185 ON -0.2499
-2.2967 ORANGE -0.2499
-2.2967 PURPLE -0.2499
-2.2967 RASPBERRY -0.2499
-2.2967 RED -0.2499
-1.9956 ROOM -0.2785
-2.2967 WHITE -0.2499
-2.2967 YELLOW -0.2499

\2-grams:
-1.3424 <s> ALL 0.0000
-1.3424 <s> BATHROOM 0.0000
-1.3424 <s> BEDROOM 0.0000
-1.3424 <s> DINING 0.0000
-1.3424 <s> FAN 0.0000
-0.6892 <s> GARDEN 0.0000
-1.3424 <s> KITCHEN 0.0000
-1.6435 <s> RASPBERRY 0.0000
-0.3010 ALL LIGHTS 0.0000
-0.3010 BATHROOM LIGHTS 0.0000
-0.3010 BEDROOM LIGHTS 0.0000
-0.3010 BLUE </s> -0.3010
-0.3010 DINING ROOM 0.0000
-0.3010 FADE </s> -0.3010
-0.6021 FAN OFF 0.0000
-0.6021 FAN ON 0.0000
-1.2553 GARDEN BLUE 0.0000
-1.2553 GARDEN FADE 0.0000
-1.2553 GARDEN GREEN 0.0000
-1.2553 GARDEN INDIGO 0.0000
-1.2553 GARDEN ORANGE 0.0000
-1.2553 GARDEN PURPLE 0.0000
-1.2553 GARDEN RED 0.0000
-1.2553 GARDEN WHITE 0.0000
-1.2553 GARDEN YELLOW 0.0000
-0.3010 GREEN </s> -0.3010
-0.3010 INDIGO </s> -0.3010
-0.3010 KITCHEN LIGHTS 0.0000
-0.6021 LIGHTS OFF 0.0000
-0.6021 LIGHTS ON 0.0000
-0.3010 OFF </s> -0.3010
-0.3010 ON </s> -0.3010
-0.3010 ORANGE </s> -0.3010
-0.3010 PURPLE </s> -0.3010
-0.3010 RASPBERRY </s> -0.3010
-0.3010 RED </s> -0.3010
-0.3010 ROOM LIGHTS 0.0000
-0.3010 WHITE </s> -0.3010
-0.3010 YELLOW </s> -0.3010

\3-grams:
-0.3010 <s> ALL LIGHTS
-0.3010 <s> BATHROOM LIGHTS
-0.3010 <s> BEDROOM LIGHTS
-0.3010 <s> DINING ROOM
-0.6021 <s> FAN OFF
-0.6021 <s> FAN ON
-1.2553 <s> GARDEN BLUE
-1.2553 <s> GARDEN FADE
-1.2553 <s> GARDEN GREEN
-1.2553 <s> GARDEN INDIGO
-1.2553 <s> GARDEN ORANGE
-1.2553 <s> GARDEN PURPLE
-1.2553 <s> GARDEN RED
-1.2553 <s> GARDEN WHITE
-1.2553 <s> GARDEN YELLOW
-0.3010 <s> KITCHEN LIGHTS
-0.3010 <s> RASPBERRY </s>
-0.6021 ALL LIGHTS OFF
-0.6021 ALL LIGHTS ON
-0.6021 BATHROOM LIGHTS OFF
-0.6021 BATHROOM LIGHTS ON
-0.6021 BEDROOM LIGHTS OFF
-0.6021 BEDROOM LIGHTS ON
-0.3010 DINING ROOM LIGHTS
-0.3010 FAN OFF </s>
-0.3010 FAN ON </s>
-0.3010 GARDEN BLUE </s>
-0.3010 GARDEN FADE </s>
-0.3010 GARDEN GREEN </s>
-0.3010 GARDEN INDIGO </s>
-0.3010 GARDEN ORANGE </s>
-0.3010 GARDEN PURPLE </s>
-0.3010 GARDEN RED </s>
-0.3010 GARDEN WHITE </s>
-0.3010 GARDEN YELLOW </s>
-0.6021 KITCHEN LIGHTS OFF
-0.6021 KITCHEN LIGHTS ON
-0.3010 LIGHTS OFF </s>
-0.3010 LIGHTS ON </s>
-0.6021 ROOM LIGHTS OFF
-0.6021 ROOM LIGHTS ON

\end\
